digraph Tree {
node [shape=box, style="filled, rounded", color="black", fontname=helvetica] ;
edge [fontname=helvetica] ;
0 [label=<SUHU &le; 28.95<br/>entropy = 0.997<br/>samples = 79<br/>value = [37, 42]>, fillcolor="#399de51e"] ;
1 [label=<SUHU &le; 28.25<br/>entropy = 0.967<br/>samples = 61<br/>value = [24, 37]>, fillcolor="#399de55a"] ;
0 -> 1 [labeldistance=2.5, labelangle=45, headlabel="True"] ;
2 [label=<SUHU &le; 27.2<br/>entropy = 0.907<br/>samples = 31<br/>value = [10, 21]>, fillcolor="#399de586"] ;
1 -> 2 ;
3 [label=<HUJAN &le; 0.5<br/>entropy = 0.985<br/>samples = 7<br/>value = [4, 3]>, fillcolor="#e5813940"] ;
2 -> 3 ;
4 [label=<SUHU &le; 25.65<br/>entropy = 1.0<br/>samples = 4<br/>value = [2, 2]>, fillcolor="#e5813900"] ;
3 -> 4 ;
5 [label=<entropy = 0.0<br/>samples = 1<br/>value = [0, 1]>, fillcolor="#399de5ff"] ;
4 -> 5 ;
6 [label=<SUHU &le; 26.7<br/>entropy = 0.918<br/>samples = 3<br/>value = [2, 1]>, fillcolor="#e581397f"] ;
4 -> 6 ;
7 [label=<entropy = 0.0<br/>samples = 1<br/>value = [1, 0]>, fillcolor="#e58139ff"] ;
6 -> 7 ;
8 [label=<entropy = 1.0<br/>samples = 2<br/>value = [1, 1]>, fillcolor="#e5813900"] ;
6 -> 8 ;
9 [label=<SUHU &le; 25.65<br/>entropy = 0.918<br/>samples = 3<br/>value = [2, 1]>, fillcolor="#e581397f"] ;
3 -> 9 ;
10 [label=<entropy = 0.0<br/>samples = 2<br/>value = [2, 0]>, fillcolor="#e58139ff"] ;
9 -> 10 ;
11 [label=<entropy = 0.0<br/>samples = 1<br/>value = [0, 1]>, fillcolor="#399de5ff"] ;
9 -> 11 ;
12 [label=<SUHU &le; 27.55<br/>entropy = 0.811<br/>samples = 24<br/>value = [6, 18]>, fillcolor="#399de5aa"] ;
2 -> 12 ;
13 [label=<entropy = 0.0<br/>samples = 4<br/>value = [0, 4]>, fillcolor="#399de5ff"] ;
12 -> 13 ;
14 [label=<SUHU &le; 27.85<br/>entropy = 0.881<br/>samples = 20<br/>value = [6, 14]>, fillcolor="#399de592"] ;
12 -> 14 ;
15 [label=<HUJAN &le; 0.5<br/>entropy = 1.0<br/>samples = 6<br/>value = [3, 3]>, fillcolor="#e5813900"] ;
14 -> 15 ;
16 [label=<SUHU &le; 27.75<br/>entropy = 0.918<br/>samples = 3<br/>value = [2, 1]>, fillcolor="#e581397f"] ;
15 -> 16 ;
17 [label=<entropy = 1.0<br/>samples = 2<br/>value = [1, 1]>, fillcolor="#e5813900"] ;
16 -> 17 ;
18 [label=<entropy = 0.0<br/>samples = 1<br/>value = [1, 0]>, fillcolor="#e58139ff"] ;
16 -> 18 ;
19 [label=<SUHU &le; 27.75<br/>entropy = 0.918<br/>samples = 3<br/>value = [1, 2]>, fillcolor="#399de57f"] ;
15 -> 19 ;
20 [label=<entropy = 1.0<br/>samples = 2<br/>value = [1, 1]>, fillcolor="#e5813900"] ;
19 -> 20 ;
21 [label=<entropy = 0.0<br/>samples = 1<br/>value = [0, 1]>, fillcolor="#399de5ff"] ;
19 -> 21 ;
22 [label=<HUJAN &le; 0.5<br/>entropy = 0.75<br/>samples = 14<br/>value = [3, 11]>, fillcolor="#399de5b9"] ;
14 -> 22 ;
23 [label=<entropy = 0.0<br/>samples = 5<br/>value = [0, 5]>, fillcolor="#399de5ff"] ;
22 -> 23 ;
24 [label=<SUHU &le; 28.05<br/>entropy = 0.918<br/>samples = 9<br/>value = [3, 6]>, fillcolor="#399de57f"] ;
22 -> 24 ;
25 [label=<SUHU &le; 27.95<br/>entropy = 0.722<br/>samples = 5<br/>value = [1, 4]>, fillcolor="#399de5bf"] ;
24 -> 25 ;
26 [label=<entropy = 0.811<br/>samples = 4<br/>value = [1, 3]>, fillcolor="#399de5aa"] ;
25 -> 26 ;
27 [label=<entropy = 0.0<br/>samples = 1<br/>value = [0, 1]>, fillcolor="#399de5ff"] ;
25 -> 27 ;
28 [label=<SUHU &le; 28.15<br/>entropy = 1.0<br/>samples = 4<br/>value = [2, 2]>, fillcolor="#e5813900"] ;
24 -> 28 ;
29 [label=<entropy = 1.0<br/>samples = 2<br/>value = [1, 1]>, fillcolor="#e5813900"] ;
28 -> 29 ;
30 [label=<entropy = 1.0<br/>samples = 2<br/>value = [1, 1]>, fillcolor="#e5813900"] ;
28 -> 30 ;
31 [label=<SUHU &le; 28.45<br/>entropy = 0.997<br/>samples = 30<br/>value = [14, 16]>, fillcolor="#399de520"] ;
1 -> 31 ;
32 [label=<HUJAN &le; 0.5<br/>entropy = 0.592<br/>samples = 7<br/>value = [6, 1]>, fillcolor="#e58139d4"] ;
31 -> 32 ;
33 [label=<SUHU &le; 28.35<br/>entropy = 0.722<br/>samples = 5<br/>value = [4, 1]>, fillcolor="#e58139bf"] ;
32 -> 33 ;
34 [label=<entropy = 0.0<br/>samples = 1<br/>value = [1, 0]>, fillcolor="#e58139ff"] ;
33 -> 34 ;
35 [label=<entropy = 0.811<br/>samples = 4<br/>value = [3, 1]>, fillcolor="#e58139aa"] ;
33 -> 35 ;
36 [label=<entropy = 0.0<br/>samples = 2<br/>value = [2, 0]>, fillcolor="#e58139ff"] ;
32 -> 36 ;
37 [label=<HUJAN &le; 0.5<br/>entropy = 0.932<br/>samples = 23<br/>value = [8, 15]>, fillcolor="#399de577"] ;
31 -> 37 ;
38 [label=<SUHU &le; 28.55<br/>entropy = 0.971<br/>samples = 20<br/>value = [8, 12]>, fillcolor="#399de555"] ;
37 -> 38 ;
39 [label=<entropy = 0.811<br/>samples = 4<br/>value = [1, 3]>, fillcolor="#399de5aa"] ;
38 -> 39 ;
40 [label=<SUHU &le; 28.65<br/>entropy = 0.989<br/>samples = 16<br/>value = [7, 9]>, fillcolor="#399de539"] ;
38 -> 40 ;
41 [label=<entropy = 0.0<br/>samples = 2<br/>value = [2, 0]>, fillcolor="#e58139ff"] ;
40 -> 41 ;
42 [label=<SUHU &le; 28.85<br/>entropy = 0.94<br/>samples = 14<br/>value = [5, 9]>, fillcolor="#399de571"] ;
40 -> 42 ;
43 [label=<SUHU &le; 28.75<br/>entropy = 0.881<br/>samples = 10<br/>value = [3, 7]>, fillcolor="#399de592"] ;
42 -> 43 ;
44 [label=<entropy = 0.918<br/>samples = 6<br/>value = [2, 4]>, fillcolor="#399de57f"] ;
43 -> 44 ;
45 [label=<entropy = 0.811<br/>samples = 4<br/>value = [1, 3]>, fillcolor="#399de5aa"] ;
43 -> 45 ;
46 [label=<entropy = 1.0<br/>samples = 4<br/>value = [2, 2]>, fillcolor="#e5813900"] ;
42 -> 46 ;
47 [label=<entropy = 0.0<br/>samples = 3<br/>value = [0, 3]>, fillcolor="#399de5ff"] ;
37 -> 47 ;
48 [label=<SUHU &le; 29.75<br/>entropy = 0.852<br/>samples = 18<br/>value = [13, 5]>, fillcolor="#e581399d"] ;
0 -> 48 [labeldistance=2.5, labelangle=-45, headlabel="False"] ;
49 [label=<SUHU &le; 29.35<br/>entropy = 0.787<br/>samples = 17<br/>value = [13, 4]>, fillcolor="#e58139b1"] ;
48 -> 49 ;
50 [label=<SUHU &le; 29.15<br/>entropy = 0.89<br/>samples = 13<br/>value = [9, 4]>, fillcolor="#e581398e"] ;
49 -> 50 ;
51 [label=<SUHU &le; 29.05<br/>entropy = 0.65<br/>samples = 6<br/>value = [5, 1]>, fillcolor="#e58139cc"] ;
50 -> 51 ;
52 [label=<HUJAN &le; 0.5<br/>entropy = 0.918<br/>samples = 3<br/>value = [2, 1]>, fillcolor="#e581397f"] ;
51 -> 52 ;
53 [label=<entropy = 1.0<br/>samples = 2<br/>value = [1, 1]>, fillcolor="#e5813900"] ;
52 -> 53 ;
54 [label=<entropy = 0.0<br/>samples = 1<br/>value = [1, 0]>, fillcolor="#e58139ff"] ;
52 -> 54 ;
55 [label=<entropy = 0.0<br/>samples = 3<br/>value = [3, 0]>, fillcolor="#e58139ff"] ;
51 -> 55 ;
56 [label=<HUJAN &le; 0.5<br/>entropy = 0.985<br/>samples = 7<br/>value = [4, 3]>, fillcolor="#e5813940"] ;
50 -> 56 ;
57 [label=<SUHU &le; 29.25<br/>entropy = 0.918<br/>samples = 6<br/>value = [4, 2]>, fillcolor="#e581397f"] ;
56 -> 57 ;
58 [label=<entropy = 0.918<br/>samples = 3<br/>value = [2, 1]>, fillcolor="#e581397f"] ;
57 -> 58 ;
59 [label=<entropy = 0.918<br/>samples = 3<br/>value = [2, 1]>, fillcolor="#e581397f"] ;
57 -> 59 ;
60 [label=<entropy = 0.0<br/>samples = 1<br/>value = [0, 1]>, fillcolor="#399de5ff"] ;
56 -> 60 ;
61 [label=<entropy = 0.0<br/>samples = 4<br/>value = [4, 0]>, fillcolor="#e58139ff"] ;
49 -> 61 ;
62 [label=<entropy = 0.0<br/>samples = 1<br/>value = [0, 1]>, fillcolor="#399de5ff"] ;
48 -> 62 ;
}